svm_type c_svc
kernel_type linear
nr_class 2
total_sv 52
rho 2.66744
label 2 4
probA -1.63847
probB -0.434615
nr_sv 23 29
SV
2000 1:-0.859671 2:-0.111111 3:-0.333333 4:-0.333333 5:-0.111111 6:0.333333 7:1 8:-0.555556 9:-0.777778 10:-1 
2000 1:-0.85768 2:0.111111 3:0.555556 4:0.555556 5:-1 6:-0.555556 7:-0.333333 8:-0.555556 9:0.333333 10:-1 
1955.944045181871 1:-0.857408 2:-1 3:-1 4:-1 5:-1 6:-0.777778 7:1 8:-0.555556 9:-1 10:-1 
2000 1:-0.847895 2:0.111111 3:-0.777778 4:-1 5:-1 6:-1 7:-1 8:0.333333 9:-1 10:-1 
2000 1:-0.834221 2:0.555556 3:-0.555556 4:-0.555556 5:-1 6:-0.777778 7:-0.777778 8:-0.555556 9:-0.777778 10:-1 
2000 1:-0.832114 2:-0.555556 3:-1 4:-1 5:-0.555556 6:0.555556 7:-1 8:-0.111111 9:0.555556 10:-1 
2000 1:-0.828243 2:0.555556 3:-0.333333 4:-0.333333 5:-0.111111 6:-0.333333 7:0.333333 8:0.333333 9:0.555556 10:-0.777778 
2000 1:-0.825505 2:0.555556 3:-0.333333 4:0.111111 5:-0.555556 6:-0.555556 7:-1 8:-0.333333 9:-0.555556 10:-1 
2000 1:-0.819714 2:-0.111111 3:-1 4:-0.555556 5:-0.555556 6:-0.777778 7:-0.777778 8:-0.777778 9:-0.555556 10:-1 
2000 1:-0.857569 2:0.111111 3:-0.555556 4:-0.555556 5:-0.111111 6:-0.555556 7:1 8:-0.555556 9:-0.111111 10:-0.555556 
2000 1:-0.973177 2:-0.111111 3:0.333333 4:0.333333 5:-1 6:-0.111111 7:0.555556 8:-0.555556 9:-0.333333 10:-1 
2000 1:-0.917427 2:-0.111111 3:-0.555556 4:-0.333333 5:-0.555556 6:-0.333333 7:-0.111111 8:-0.333333 9:0.333333 10:-1 
2000 1:-0.901709 2:-0.333333 3:-0.333333 4:-0.333333 5:-0.333333 6:0.111111 7:-0.111111 8:0.333333 9:-0.555556 10:-1 
2000 1:-0.882987 2:-0.555556 3:-0.333333 4:-0.111111 5:-0.555556 6:0.333333 7:-0.555556 8:-0.333333 9:0.111111 10:-1 
782.9346835053805 1:-0.907012 2:-0.111111 3:-0.555556 4:-0.333333 5:-1 6:-0.333333 7:-1 8:-0.555556 9:-1 10:-1 
2000 1:-0.824381 2:-0.555556 3:-0.555556 4:-0.777778 5:0.111111 6:-0.555556 7:-0.555556 8:-0.555556 9:-0.111111 10:-1 
2000 1:-0.824216 2:-0.111111 3:-0.777778 4:-0.777778 5:-0.777778 6:-0.777778 7:-0.777778 8:-0.555556 9:-0.777778 10:-0.777778 
2000 1:-0.816285 2:0.111111 3:0.777778 4:0.333333 5:-0.111111 6:-0.111111 7:0.555556 8:-0.333333 9:-0.777778 10:-1 
1217.253214277182 1:-0.908217 2:-0.111111 3:-0.777778 4:-0.777778 5:-0.333333 6:-0.777778 7:-0.333333 8:-1 9:-1 10:-1 
2000 1:-0.836817 2:-0.111111 3:-1 4:-0.777778 5:1 6:-0.333333 7:-0.111111 8:-0.777778 9:-1 10:-1 
2000 1:-0.84572 2:0.111111 3:-0.555556 4:-0.555556 5:-0.555556 6:-0.555556 7:-0.777778 8:0.111111 9:-1 10:-1 
2000 1:-0.839112 2:0.333333 3:-1 4:-0.777778 5:-0.555556 6:-0.777778 7:-1 8:-0.777778 9:-1 10:-1 
2000 1:-0.810245 2:-0.111111 3:-0.333333 4:-0.111111 5:-1 6:0.555556 7:-1 8:-0.555556 9:0.111111 10:-1 
-2000 1:-0.853868 2:-0.111111 3:-0.555556 4:-0.555556 5:-0.555556 6:-0.777778 7:-0.555556 8:-0.333333 9:-0.333333 10:-1 
-2000 1:-0.852997 2:0.333333 3:-0.333333 4:0.111111 5:-0.333333 6:0.111111 7:-1 8:-0.333333 9:-0.555556 10:-1 
-2000 1:-0.850295 2:-0.111111 3:-0.777778 4:-0.555556 5:-0.333333 6:-0.777778 7:0.333333 8:-0.555556 9:0.111111 10:-1 
-2000 1:-0.846481 2:-0.777778 3:-0.111111 4:-0.555556 5:-0.555556 6:0.111111 7:0.333333 8:0.333333 9:-0.111111 10:-1 
-2000 1:-0.844791 2:-0.111111 3:0.111111 4:-0.111111 5:0.111111 6:1 7:-1 8:-0.555556 9:-1 10:-1 
-2000 1:-0.843914 2:-0.111111 3:-0.555556 4:-0.555556 5:-0.333333 6:-0.777778 7:-0.333333 8:-0.555556 9:-0.333333 10:-1 
-420.5239326987646 1:-0.843162 2:-0.111111 3:-0.777778 4:-0.555556 5:-1 6:0.111111 7:1 8:-0.111111 9:-1 10:-1 
-2000 1:-0.843099 2:0.777778 3:-0.111111 4:-0.111111 5:-0.777778 6:-0.777778 7:-0.777778 8:-0.111111 9:-1 10:-1 
-2000 1:-0.842893 2:-0.111111 3:-0.555556 4:-0.111111 5:-0.111111 6:-0.555556 7:-0.555556 8:-0.333333 9:1 10:-1 
-2000 1:-0.842766 2:0.111111 3:-0.555556 4:-0.333333 5:-1 6:-0.111111 7:-0.777778 8:-0.555556 9:0.777778 10:-1 
-153.4498423072746 1:-0.84123 2:1 3:0.111111 4:-0.333333 5:-1 6:-0.555556 7:-0.333333 8:-0.555556 9:-0.777778 10:-0.555556 
-14.16570832750716 1:-0.837965 2:-0.555556 3:-0.555556 4:0.111111 5:-0.333333 6:-0.111111 7:0.555556 8:-0.333333 9:-0.333333 10:-1 
-2000 1:-0.835103 2:-0.777778 3:-0.555556 4:-0.333333 5:-0.333333 6:-0.777778 7:-0.111111 8:-0.777778 9:-0.111111 10:-1 
-2000 1:-0.834966 2:0.555556 3:-0.777778 4:-0.555556 5:-1 6:0.111111 7:-0.555556 8:0.333333 9:-1 10:-1 
-2000 1:-0.83239 2:-0.555556 3:-0.333333 4:-0.111111 5:-0.777778 6:0.111111 7:0.555556 8:-0.333333 9:-1 10:-1 
-2000 1:-0.82982 2:-0.111111 3:-0.555556 4:-0.555556 5:-0.555556 6:0.111111 7:1 8:-0.555556 9:-1 10:-1 
-2000 1:-0.826355 2:-0.333333 3:-1 4:-1 5:-0.555556 6:-1 7:-0.111111 8:-0.777778 9:-1 10:-1 
-834.1237793656418 1:-0.961571 2:-0.555556 3:-0.555556 4:-0.111111 5:-0.777778 6:-0.555556 7:1 8:0.333333 9:-1 10:-1 
-240.4350563292621 1:-0.961571 2:-0.555556 3:-0.555556 4:-0.111111 5:-0.777778 6:-0.555556 7:1 8:0.333333 9:-1 10:-1 
-2000 1:-0.945407 2:0.333333 3:-0.777778 4:-0.333333 5:-1 6:-0.555556 7:-0.333333 8:-0.555556 9:-0.555556 10:-1 
-1186.512067451048 1:-0.928283 2:0.111111 3:-1 4:-0.555556 5:-1 6:-0.333333 7:-0.111111 8:-0.111111 9:1 10:-1 
-165.8380810791579 1:-0.895956 2:0.555556 3:1 4:-0.555556 5:-0.777778 6:0.111111 7:-0.333333 8:-0.555556 9:1 10:-1 
-2000 1:-0.885169 2:-0.555556 3:-0.333333 4:-0.333333 5:1 6:-0.111111 7:-1 8:-0.555556 9:-0.555556 10:-1 
-2000 1:-0.881145 2:-0.111111 3:-0.555556 4:-0.555556 5:-1 6:-0.555556 7:-0.555556 8:-0.555556 9:-0.555556 10:-0.555556 
-2000 1:-0.823286 2:1 3:-0.777778 4:-0.777778 5:-1 6:-0.777778 7:0.111111 8:-1 9:-1 10:-0.777778 
-2000 1:-0.848708 2:-0.555556 3:0.111111 4:-0.333333 5:1 6:-0.555556 7:-0.555556 8:-0.555556 9:-0.333333 10:-1 
-2000 1:-0.847545 2:0.111111 3:-0.555556 4:-0.777778 5:-1 6:-0.555556 7:-0.333333 8:-0.333333 9:-1 10:-1 
-92.77904649112072 1:-0.816162 2:-0.333333 3:1 4:0.555556 5:-0.111111 6:-0.333333 7:-1 8:1 9:-1 10:-1 
-848.3044289146558 1:-0.807789 2:-0.111111 3:0.333333 4:-0.333333 5:-1 6:0.111111 7:-1 8:0.333333 9:1 10:-0.555556 
