svm_type c_svc
kernel_type rbf
gamma 0.25
nr_class 3
total_sv 16
rho -0.311311 0.0409929 -5.4054
label 1 2 3
probA -2.91334 -3.40779 -0.636082
probB -0.0625998 -0.0598164 0.0785385
nr_sv 4 5 7
SV
0 0.5948775245429752 1:-0.222222 2:1 3:-0.830508 4:-0.75 
3.336233307961043 0 1:-0.555556 2:0.0833333 3:-0.762712 4:-0.666667 
3.159956987877382 1.329198625550257 1:-0.888889 2:-0.75 3:-0.898305 4:-0.833333 
0 0.7470207915701597 1:-0.611111 2:0.25 3:-0.79661 4:-0.583333 
-0 971.1235702813973 1:-0.111111 3:0.288136 4:0.416667 
-0 702.3302840655655 1:0.111111 2:-0.583333 3:0.322034 4:0.166667 
-0 648.9328176310664 1:0.333333 2:-0.166667 3:0.355932 4:0.333333 
-0 1024 1:-0.0555556 2:-0.416667 3:0.38983 4:0.25 
-6.496190295838426 0 1:-0.555556 2:-0.583333 3:-0.322034 4:-0.166667 
-2.003533327284761 -0 1:-0.666667 2:-0.583333 3:0.186441 4:0.333333 
-0 -368.8172422219445 1:-0.0555556 2:-0.833333 3:0.355932 4:0.166667 
-0 -780.9648231884272 1:-1.32455e-07 2:-0.166667 3:0.322034 4:0.416667 
-0 -148.6046065676583 1:0.611111 2:-0.166667 3:0.627119 4:0.25 
-0.6675636143786309 -0 1:1 2:0.5 3:0.830508 4:0.583333 
-0 -1024 1:0.111111 2:-0.333333 3:0.38983 4:0.166667 
-0 -1024 1:-0.0555556 2:-0.166667 3:0.288136 4:0.416667 
